digraph Tree {
node [shape=box] ;
0 [label="X[2] <= 15884.23\ngini = 0.71\nsamples = 145\nvalue = [4, 12, 27, 52, 50]"] ;
1 [label="X[0] <= 11172.895\ngini = 0.655\nsamples = 65\nvalue = [4, 4, 5, 21, 31]"] ;
0 -> 1 [labeldistance=2.5, labelangle=45, headlabel="True"] ;
2 [label="X[0] <= 10369.875\ngini = 0.678\nsamples = 40\nvalue = [3, 1, 5, 16, 15]"] ;
1 -> 2 ;
3 [label="gini = 0.696\nsamples = 34\nvalue = [3, 1, 5, 11, 14]"] ;
2 -> 3 ;
4 [label="gini = 0.278\nsamples = 6\nvalue = [0, 0, 0, 5, 1]"] ;
2 -> 4 ;
5 [label="X[2] <= 13289.654\ngini = 0.534\nsamples = 25\nvalue = [1, 3, 0, 5, 16]"] ;
1 -> 5 ;
6 [label="gini = 0.272\nsamples = 13\nvalue = [1, 0, 0, 1, 11]"] ;
5 -> 6 ;
7 [label="gini = 0.653\nsamples = 12\nvalue = [0, 3, 0, 4, 5]"] ;
5 -> 7 ;
8 [label="X[0] <= 16182.164\ngini = 0.708\nsamples = 80\nvalue = [0, 8, 22, 31, 19]"] ;
0 -> 8 [labeldistance=2.5, labelangle=-45, headlabel="False"] ;
9 [label="X[0] <= 14159.314\ngini = 0.5\nsamples = 6\nvalue = [0, 1, 4, 1, 0]"] ;
8 -> 9 ;
10 [label="gini = 0.0\nsamples = 2\nvalue = [0, 0, 2, 0, 0]"] ;
9 -> 10 ;
11 [label="gini = 0.625\nsamples = 4\nvalue = [0, 1, 2, 1, 0]"] ;
9 -> 11 ;
12 [label="X[1] <= 16423.98\ngini = 0.702\nsamples = 74\nvalue = [0, 7, 18, 30, 19]"] ;
8 -> 12 ;
13 [label="gini = 0.444\nsamples = 3\nvalue = [0, 2, 0, 0, 1]"] ;
12 -> 13 ;
14 [label="gini = 0.688\nsamples = 71\nvalue = [0, 5, 18, 30, 18]"] ;
12 -> 14 ;
}