digraph Tree {
node [shape=box] ;
0 [label="X[2] <= 0.002\ngini = 0.696\nsamples = 145\nvalue = [4, 11, 23, 53, 54]"] ;
1 [label="X[1] <= 0.002\ngini = 0.523\nsamples = 42\nvalue = [0, 3, 2, 10, 27]"] ;
0 -> 1 [labeldistance=2.5, labelangle=45, headlabel="True"] ;
2 [label="X[3] <= 1.0\ngini = 0.694\nsamples = 7\nvalue = [0, 1, 2, 3, 1]"] ;
1 -> 2 ;
3 [label="gini = 0.611\nsamples = 6\nvalue = [0, 1, 2, 3, 0]"] ;
2 -> 3 ;
4 [label="gini = 0.0\nsamples = 1\nvalue = [0, 0, 0, 0, 1]"] ;
2 -> 4 ;
5 [label="X[3] <= 0.957\ngini = 0.405\nsamples = 35\nvalue = [0, 2, 0, 7, 26]"] ;
1 -> 5 ;
6 [label="gini = 0.304\nsamples = 17\nvalue = [0, 2, 0, 1, 14]"] ;
5 -> 6 ;
7 [label="gini = 0.444\nsamples = 18\nvalue = [0, 0, 0, 6, 12]"] ;
5 -> 7 ;
8 [label="X[4] <= 0.016\ngini = 0.708\nsamples = 103\nvalue = [4, 8, 21, 43, 27]"] ;
0 -> 8 [labeldistance=2.5, labelangle=-45, headlabel="False"] ;
9 [label="X[0] <= 0.08\ngini = 0.683\nsamples = 82\nvalue = [4, 8, 9, 38, 23]"] ;
8 -> 9 ;
10 [label="gini = 0.518\nsamples = 30\nvalue = [2, 2, 1, 20, 5]"] ;
9 -> 10 ;
11 [label="gini = 0.722\nsamples = 52\nvalue = [2, 6, 8, 18, 18]"] ;
9 -> 11 ;
12 [label="X[0] <= 0.035\ngini = 0.58\nsamples = 21\nvalue = [0, 0, 12, 5, 4]"] ;
8 -> 12 ;
13 [label="gini = 0.219\nsamples = 8\nvalue = [0, 0, 7, 0, 1]"] ;
12 -> 13 ;
14 [label="gini = 0.651\nsamples = 13\nvalue = [0, 0, 5, 5, 3]"] ;
12 -> 14 ;
}