digraph Tree {
node [shape=box] ;
0 [label="X[0] <= 26.0\ngini = 0.705\nsamples = 145\nvalue = [2, 11, 31, 53, 48]"] ;
1 [label="X[0] <= 13.5\ngini = 0.691\nsamples = 137\nvalue = [2, 10, 24, 53, 48]"] ;
0 -> 1 [labeldistance=2.5, labelangle=45, headlabel="True"] ;
2 [label="X[0] <= 3.5\ngini = 0.65\nsamples = 86\nvalue = [0, 5, 15, 42, 24]"] ;
1 -> 2 ;
3 [label="gini = 0.533\nsamples = 17\nvalue = [0, 2, 1, 11, 3]"] ;
2 -> 3 ;
4 [label="gini = 0.662\nsamples = 69\nvalue = [0, 3, 14, 31, 21]"] ;
2 -> 4 ;
5 [label="X[0] <= 14.5\ngini = 0.69\nsamples = 51\nvalue = [2, 5, 9, 11, 24]"] ;
1 -> 5 ;
6 [label="gini = 0.7\nsamples = 10\nvalue = [0, 1, 4, 2, 3]"] ;
5 -> 6 ;
7 [label="gini = 0.663\nsamples = 41\nvalue = [2, 4, 5, 9, 21]"] ;
5 -> 7 ;
8 [label="X[0] <= 32.0\ngini = 0.219\nsamples = 8\nvalue = [0, 1, 7, 0, 0]"] ;
0 -> 8 [labeldistance=2.5, labelangle=-45, headlabel="False"] ;
9 [label="gini = 0.0\nsamples = 3\nvalue = [0, 0, 3, 0, 0]"] ;
8 -> 9 ;
10 [label="X[0] <= 37.5\ngini = 0.32\nsamples = 5\nvalue = [0, 1, 4, 0, 0]"] ;
8 -> 10 ;
11 [label="gini = 0.5\nsamples = 2\nvalue = [0, 1, 1, 0, 0]"] ;
10 -> 11 ;
12 [label="gini = 0.0\nsamples = 3\nvalue = [0, 0, 3, 0, 0]"] ;
10 -> 12 ;
}